digraph Tree {
node [shape=box, style="filled, rounded", color="black", fontname="helvetica"] ;
edge [fontname="helvetica"] ;
0 [label=<PracticeLapTimeDelta &le; 1.006<br/>gini = 0.949<br/>samples = 683<br/>value = [36, 36, 36, 36, 36, 35, 35, 35, 35, 35, 35, 35<br/>35, 35, 35, 35, 35, 33, 31, 19]<br/>class = 1>, fillcolor="#ffffff"] ;
1 [label=<Driver &le; 3.5<br/>gini = 0.886<br/>samples = 149<br/>value = [29, 23, 24, 15, 9, 7, 7, 5, 8, 4, 2, 7, 3, 0<br/>2, 4, 0, 0, 0, 0]<br/>class = 1>, fillcolor="#fefaf7"] ;
0 -> 1 [labeldistance=2.5, labelangle=45, headlabel="True"] ;
2 [label=<TyreLife &le; 4.5<br/>gini = 0.901<br/>samples = 29<br/>value = [0, 1, 1, 1, 4, 2, 0, 2, 5, 3, 2, 2, 3, 0<br/>1, 2, 0, 0, 0, 0]<br/>class = 9>, fillcolor="#f7fefd"] ;
1 -> 2 ;
3 [label=<gini = 0.867<br/>samples = 16<br/>value = [0, 1, 1, 0, 3, 0, 0, 2, 0, 1, 1, 2, 3, 0<br/>0, 2, 0, 0, 0, 0]<br/>class = 5>, fillcolor="#ffffff"] ;
2 -> 3 ;
4 [label=<gini = 0.781<br/>samples = 13<br/>value = [0, 0, 0, 1, 1, 2, 0, 0, 5, 2, 1, 0, 0, 0<br/>1, 0, 0, 0, 0, 0]<br/>class = 9>, fillcolor="#c9f8ef"] ;
2 -> 4 ;
5 [label=<PracticeLapTimeDelta &le; 1.001<br/>gini = 0.847<br/>samples = 120<br/>value = [29, 22, 23, 14, 5, 5, 7, 3, 3, 1, 0, 5, 0, 0<br/>1, 2, 0, 0, 0, 0]<br/>class = 1>, fillcolor="#fdf7f3"] ;
1 -> 5 ;
6 [label=<TyreLife &le; 5.5<br/>gini = 0.784<br/>samples = 51<br/>value = [19, 11, 6, 4, 1, 0, 4, 1, 2, 0, 0, 1, 0, 0<br/>0, 2, 0, 0, 0, 0]<br/>class = 1>, fillcolor="#fae6d7"] ;
5 -> 6 ;
7 [label=<LapNumber &le; 10.5<br/>gini = 0.787<br/>samples = 38<br/>value = [15, 4, 5, 4, 1, 0, 4, 0, 2, 0, 0, 1, 0, 0<br/>0, 2, 0, 0, 0, 0]<br/>class = 1>, fillcolor="#f7d9c3"] ;
6 -> 7 ;
8 [label=<gini = 0.806<br/>samples = 25<br/>value = [8, 4, 4, 2, 0, 0, 4, 0, 2, 0, 0, 0, 0, 0<br/>0, 1, 0, 0, 0, 0]<br/>class = 1>, fillcolor="#fae7d9"] ;
7 -> 8 ;
9 [label=<gini = 0.663<br/>samples = 13<br/>value = [7, 0, 1, 2, 1, 0, 0, 0, 0, 0, 0, 1, 0, 0<br/>0, 1, 0, 0, 0, 0]<br/>class = 1>, fillcolor="#f3c6a5"] ;
7 -> 9 ;
10 [label=<gini = 0.604<br/>samples = 13<br/>value = [4, 7, 1, 0, 0, 0, 0, 1, 0, 0, 0, 0, 0, 0<br/>0, 0, 0, 0, 0, 0]<br/>class = 2>, fillcolor="#f6e6bd"] ;
6 -> 10 ;
11 [label=<PracticeLapTimeDelta &le; 1.002<br/>gini = 0.857<br/>samples = 69<br/>value = [10, 11, 17, 10, 4, 5, 3, 2, 1, 1, 0, 4, 0, 0<br/>1, 0, 0, 0, 0, 0]<br/>class = 3>, fillcolor="#fcfceb"] ;
5 -> 11 ;
12 [label=<gini = 0.66<br/>samples = 10<br/>value = [0, 0, 2, 5, 2, 0, 1, 0, 0, 0, 0, 0, 0, 0<br/>0, 0, 0, 0, 0, 0]<br/>class = 4>, fillcolor="#e1f5b5"] ;
11 -> 12 ;
13 [label=<Driver &le; 6.5<br/>gini = 0.849<br/>samples = 59<br/>value = [10, 11, 15, 5, 2, 5, 2, 2, 1, 1, 0, 4, 0, 0<br/>1, 0, 0, 0, 0, 0]<br/>class = 3>, fillcolor="#fdfdef"] ;
11 -> 13 ;
14 [label=<gini = 0.884<br/>samples = 21<br/>value = [2, 1, 4, 2, 1, 3, 1, 2, 1, 1, 0, 3, 0, 0<br/>0, 0, 0, 0, 0, 0]<br/>class = 3>, fillcolor="#fdfef4"] ;
13 -> 14 ;
15 [label=<gini = 0.791<br/>samples = 38<br/>value = [8, 10, 11, 3, 1, 2, 1, 0, 0, 0, 0, 1, 0, 0<br/>1, 0, 0, 0, 0, 0]<br/>class = 3>, fillcolor="#fefef8"] ;
13 -> 15 ;
16 [label=<PracticeLapTimeDelta &le; 1.022<br/>gini = 0.946<br/>samples = 534<br/>value = [7, 13, 12, 21, 27, 28, 28, 30, 27, 31, 33, 28<br/>32, 35, 33, 31, 35, 33, 31, 19]<br/>class = 14>, fillcolor="#ffffff"] ;
0 -> 16 [labeldistance=2.5, labelangle=-45, headlabel="False"] ;
17 [label=<Driver &le; 3.5<br/>gini = 0.943<br/>samples = 394<br/>value = [7, 12, 12, 20, 25, 25, 25, 27, 26, 30, 27, 23<br/>26, 29, 20, 16, 17, 10, 13, 4]<br/>class = 10>, fillcolor="#feffff"] ;
16 -> 17 ;
18 [label=<Team &le; 3.5<br/>gini = 0.93<br/>samples = 204<br/>value = [0, 1, 1, 1, 9, 10, 9, 12, 17, 16, 17, 15, 18<br/>18, 17, 11, 16, 7, 8, 1]<br/>class = 13>, fillcolor="#ffffff"] ;
17 -> 18 ;
19 [label=<TyreLife &le; 3.0<br/>gini = 0.917<br/>samples = 58<br/>value = [0, 0, 1, 1, 7, 9, 2, 5, 3, 4, 4, 3, 4, 3<br/>5, 4, 1, 0, 1, 1]<br/>class = 6>, fillcolor="#f8fef7"] ;
18 -> 19 ;
20 [label=<gini = 0.867<br/>samples = 27<br/>value = [0, 0, 0, 0, 6, 4, 2, 5, 2, 1, 1, 0, 2, 1<br/>0, 2, 0, 0, 0, 1]<br/>class = 5>, fillcolor="#f9fef6"] ;
19 -> 20 ;
21 [label=<gini = 0.901<br/>samples = 31<br/>value = [0, 0, 1, 1, 1, 5, 0, 0, 1, 3, 3, 3, 2, 2<br/>5, 2, 1, 0, 1, 0]<br/>class = 6>, fillcolor="#ffffff"] ;
19 -> 21 ;
22 [label=<Team &le; 5.0<br/>gini = 0.921<br/>samples = 146<br/>value = [0, 1, 0, 0, 2, 1, 7, 7, 14, 12, 13, 12, 14<br/>15, 12, 7, 15, 7, 7, 0]<br/>class = 14>, fillcolor="#ffffff"] ;
18 -> 22 ;
23 [label=<gini = 0.782<br/>samples = 17<br/>value = [0, 0, 0, 0, 0, 0, 1, 0, 1, 1, 1, 1, 1, 7<br/>0, 0, 2, 2, 0, 0]<br/>class = 14>, fillcolor="#cfbdf6"] ;
22 -> 23 ;
24 [label=<gini = 0.921<br/>samples = 129<br/>value = [0, 1, 0, 0, 2, 1, 6, 7, 13, 11, 12, 11, 13<br/>8, 12, 7, 13, 5, 7, 0]<br/>class = 9>, fillcolor="#ffffff"] ;
22 -> 24 ;
25 [label=<PracticeLapTimeDelta &le; 1.011<br/>gini = 0.936<br/>samples = 190<br/>value = [7, 11, 11, 19, 16, 15, 16, 15, 9, 14, 10, 8, 8<br/>11, 3, 5, 1, 3, 5, 3]<br/>class = 4>, fillcolor="#fefffc"] ;
17 -> 25 ;
26 [label=<PracticeLapTimeDelta &le; 1.007<br/>gini = 0.897<br/>samples = 68<br/>value = [4, 4, 3, 15, 8, 7, 7, 3, 2, 4, 3, 1, 2, 1<br/>0, 1, 0, 1, 1, 1]<br/>class = 4>, fillcolor="#f6fce8"] ;
25 -> 26 ;
27 [label=<gini = 0.883<br/>samples = 16<br/>value = [0, 1, 1, 0, 1, 3, 3, 0, 1, 1, 2, 1, 0, 0<br/>0, 1, 0, 0, 0, 1]<br/>class = 6>, fillcolor="#ffffff"] ;
26 -> 27 ;
28 [label=<gini = 0.866<br/>samples = 52<br/>value = [4, 3, 2, 15, 7, 4, 4, 3, 1, 3, 1, 0, 2, 1<br/>0, 0, 0, 1, 1, 0]<br/>class = 4>, fillcolor="#f1fadc"] ;
26 -> 28 ;
29 [label=<LapNumber &le; 6.5<br/>gini = 0.938<br/>samples = 122<br/>value = [3, 7, 8, 4, 8, 8, 9, 12, 7, 10, 7, 7, 6, 10<br/>3, 4, 1, 2, 4, 2]<br/>class = 8>, fillcolor="#fbfffd"] ;
25 -> 29 ;
30 [label=<gini = 0.76<br/>samples = 11<br/>value = [0, 4, 3, 0, 0, 0, 0, 1, 0, 0, 0, 1, 0, 0<br/>1, 1, 0, 0, 0, 0]<br/>class = 2>, fillcolor="#fcf6e6"] ;
29 -> 30 ;
31 [label=<gini = 0.935<br/>samples = 111<br/>value = [3, 3, 5, 4, 8, 8, 9, 11, 7, 10, 7, 6, 6, 10<br/>2, 3, 1, 2, 4, 2]<br/>class = 8>, fillcolor="#fdfffe"] ;
29 -> 31 ;
32 [label=<Team &le; 12.5<br/>gini = 0.9<br/>samples = 140<br/>value = [0, 1, 0, 1, 2, 3, 3, 3, 1, 1, 6, 5, 6, 6<br/>13, 15, 18, 23, 18, 15]<br/>class = 18>, fillcolor="#fef7fa"] ;
16 -> 32 ;
33 [label=<Team &le; 10.5<br/>gini = 0.863<br/>samples = 91<br/>value = [0, 1, 0, 0, 1, 0, 2, 2, 0, 1, 2, 1, 0, 3<br/>7, 11, 10, 19, 16, 15]<br/>class = 18>, fillcolor="#fef7fa"] ;
32 -> 33 ;
34 [label=<Team &le; 3.5<br/>gini = 0.876<br/>samples = 50<br/>value = [0, 1, 0, 0, 1, 0, 2, 2, 0, 1, 2, 1, 0, 2<br/>6, 10, 5, 10, 2, 5]<br/>class = 16>, fillcolor="#ffffff"] ;
33 -> 34 ;
35 [label=<gini = 0.843<br/>samples = 11<br/>value = [0, 0, 0, 0, 1, 0, 1, 0, 0, 0, 2, 0, 0, 2<br/>2, 0, 2, 0, 1, 0]<br/>class = 11>, fillcolor="#ffffff"] ;
34 -> 35 ;
36 [label=<gini = 0.83<br/>samples = 39<br/>value = [0, 1, 0, 0, 0, 0, 1, 2, 0, 1, 0, 1, 0, 0<br/>4, 10, 3, 10, 1, 5]<br/>class = 16>, fillcolor="#ffffff"] ;
34 -> 36 ;
37 [label=<Team &le; 11.5<br/>gini = 0.759<br/>samples = 41<br/>value = [0, 0, 0, 0, 0, 0, 0, 0, 0, 0, 0, 0, 0, 1<br/>1, 1, 5, 9, 14, 10]<br/>class = 19>, fillcolor="#fce5e9"] ;
33 -> 37 ;
38 [label=<gini = 0.621<br/>samples = 21<br/>value = [0, 0, 0, 0, 0, 0, 0, 0, 0, 0, 0, 0, 0, 0<br/>0, 0, 1, 2, 9, 9]<br/>class = 19>, fillcolor="#ffffff"] ;
37 -> 38 ;
39 [label=<gini = 0.765<br/>samples = 20<br/>value = [0, 0, 0, 0, 0, 0, 0, 0, 0, 0, 0, 0, 0, 1<br/>1, 1, 4, 7, 5, 1]<br/>class = 18>, fillcolor="#fce5f0"] ;
37 -> 39 ;
40 [label=<LapNumber &le; 14.5<br/>gini = 0.905<br/>samples = 49<br/>value = [0, 0, 0, 1, 1, 3, 1, 1, 1, 0, 4, 4, 6, 3<br/>6, 4, 8, 4, 2, 0]<br/>class = 17>, fillcolor="#fef6fc"] ;
32 -> 40 ;
41 [label=<LapNumber &le; 9.5<br/>gini = 0.893<br/>samples = 38<br/>value = [0, 0, 0, 1, 1, 2, 1, 1, 0, 0, 3, 2, 5, 2<br/>2, 4, 8, 4, 2, 0]<br/>class = 17>, fillcolor="#fdedf9"] ;
40 -> 41 ;
42 [label=<gini = 0.844<br/>samples = 16<br/>value = [0, 0, 0, 0, 0, 2, 0, 0, 0, 0, 3, 1, 4, 0<br/>1, 2, 1, 2, 0, 0]<br/>class = 13>, fillcolor="#f0f0fd"] ;
41 -> 42 ;
43 [label=<gini = 0.851<br/>samples = 22<br/>value = [0, 0, 0, 1, 1, 0, 1, 1, 0, 0, 0, 1, 1, 2<br/>1, 2, 7, 2, 2, 0]<br/>class = 17>, fillcolor="#f8ceef"] ;
41 -> 43 ;
44 [label=<gini = 0.793<br/>samples = 11<br/>value = [0, 0, 0, 0, 0, 1, 0, 0, 1, 0, 1, 2, 1, 1<br/>4, 0, 0, 0, 0, 0]<br/>class = 15>, fillcolor="#ebd3f9"] ;
40 -> 44 ;
}